tree
version=v4
num_class=4
num_tree_per_iteration=4
label_index=0
max_feature_idx=49
objective=multiclass num_class:4
feature_names=Column_0 Column_1 Column_2 Column_3 Column_4 Column_5 Column_6 Column_7 Column_8 Column_9 Column_10 Column_11 Column_12 Column_13 Column_14 Column_15 Column_16 Column_17 Column_18 Column_19 Column_20 Column_21 Column_22 Column_23 Column_24 Column_25 Column_26 Column_27 Column_28 Column_29 Column_30 Column_31 Column_32 Column_33 Column_34 Column_35 Column_36 Column_37 Column_38 Column_39 Column_40 Column_41 Column_42 Column_43 Column_44 Column_45 Column_46 Column_47 Column_48 Column_49
feature_infos=[-2.0926762003994872:2.7622954741332366] [-2.1908879203288669:2.6198279548178607] [-1.9581204482037924:2.5160286746129339] [-2.1846884400373696:2.8461998132517397] [-2.0128260258423594:2.7054139525116794] [-1.8373782261472935:2.4924824127884748] [-2.0877949350488128:2.5487599541899217] [-2.1067598358851378:2.6650549232925456] [-2.1220215709890273:2.7352914713840071] [-2.1891396836261912:2.68417923725388] [-2.1959862145910463:2.5849606652660104] [-2.056347567306942:2.5665759625262003] [-2.0468307599381546:2.7717464170692097] [-1.8282715671764884:2.563286859324299] [-2.3014329748565263:2.7317258057101066] [-2.2923794610457899:2.8170279074679532] [-2.1762780144508764:2.4447135699381719] [-2.2325994982792801:2.5393428580013158] [-2.1221018251121659:2.9135418161212079] [-2.1525852045403711:2.3605487440923518] [-2.0642818477489349:2.4522766571432593] [-2.2379162489929274:2.4795218438864239] [-1.9390782933201518:2.7891271329926721] [-2.1446524946354759:2.75847146687713] [-1.9282894276487681:2.6794716175319593] [-2.1091406676416686:2.7016079104165964] [-1.9074869980554021:2.623256586578163] [-2.1493097588851318:2.6023610661655563] [-2.068744448039852:2.6958581881672035] [-2.1766236945782182:2.5632557315089528] [-2.151322398204345:2.5815137581515608] [-2.1428403639525575:2.4563576922771513] [-2.1604402162637646:2.6352019819978296] [-2.0786366037157098:2.7178539301977964] [-1.9948028770137027:2.7384581245929507] [-2.130392032241101:2.5444544780262293] [-2.1399168125371166:2.7903087123427039] [-1.9955310884563269:2.687886411136164] [-1.9611033118367358:2.7026581033629724] [-2.0684040346200656:2.448912951525466] [-2.0536927508488683:2.3748503819483191] [-2.1844608109662325:2.7156429653334664] [-2.0075988116242818:2.5711867512044244] [-2.2009353323709111:2.5660144568363585] [-2.1299596380458063:2.5624609052624456] [-2.0996128817320816:2.878134691430986] [-2.2087045162268817:2.4306356208914339] [-2.0269897505580929:2.7547643810416647] [-2.0437863200952049:2.6946379010207329] [-2.1842807154379118:2.6320257594484091]
tree_sizes=953 852 843 956

Tree=0
num_leaves=8
num_cat=0
split_feature=8 40 8 10 33 10 37
split_gain=7.05319 10.4278 9.55121 5.24888 3.70487 3.76899 1.19922
threshold=1.0000000180025095e-35 0.40825928960815183 -1.0877789345795146 -0.33699816100943192 -0.23092034109125817 -0.24367463784601956 -0.5099577995099791
decision_type=2 2 2 2 2 2 2
left_child=1 2 -1 -4 5 -2 -6
right_child=4 -3 3 -5 6 -7 -8
leaf_value=-1.4711757951396189 -1.481645210916664 -1.4829538878887947 -1.4188287162543936 -1.3503016311682805 -1.4711757951396189 -1.4188287162543936 -1.5025840424707542
leaf_weight=4.7758156061172494 4.7758156061172485 7.6413049697875968 5.9697695076465607 5.2533971667289734 4.7758156061172476 4.7758156061172503 8.3576773107051832
leaf_count=20 20 32 25 22 20 20 35
internal_value=-1.45401 -1.4349 -1.41195 -1.38675 -1.47393 -1.45024 -1.49116
internal_weight=46.3254 23.6403 15.999 11.2232 22.6851 9.55163 13.1335
internal_count=194 99 67 47 95 40 55
is_linear=0
shrinkage=1


Tree=1
num_leaves=7
num_cat=0
split_feature=46 7 0 13 16 1
split_gain=7.70892 10.9559 7.45381 5.47289 5.43749 0.12746
threshold=0.46792575223356719 -0.079552517243521761 1.046857539970923 -0.31708006943909423 -0.085098928695357332 0.077958680740258177
decision_type=2 2 2 2 2 2
left_child=2 -2 3 4 -1 -5
right_child=1 -3 -4 5 -6 -7
leaf_value=-1.2946194913080602 -1.3492530674358574 -1.2689095731302735 -1.2998109170939596 -1.3813904651580908 -1.3646231272160561 -1.3717492458414209
leaf_weight=5.1860660314559937 7.7790990471839931 9.3349188566207868 6.7418858408927909 10.112828761339186 5.9639759361743945 5.1860660314559928
leaf_count=20 30 36 26 39 23 20
internal_value=-1.33269 -1.30543 -1.34674 -1.35871 -1.33206 -1.37812
internal_weight=50.3048 17.114 33.1908 26.4489 11.15 15.2989
internal_count=194 66 128 102 43 59
is_linear=0
shrinkage=1


Tree=2
num_leaves=7
num_cat=0
split_feature=2 25 10 1 37 49
split_gain=8.23015 13.7048 4.77388 4.95587 3.065 1.84193
threshold=0.63149569431168218 0.17274254400914418 -0.46584558284320088 -0.44693280070317137 0.41002196738214297 -0.0605257413590225
decision_type=2 2 2 2 2 2
left_child=2 -2 3 -1 5 -4
right_child=1 -3 4 -5 -6 -7
leaf_value=-1.3540138473936694 -1.3033607388207331 -1.4184814401228614 -1.421551325490918 -1.4137585395566201 -1.3985885829378535 -1.4553200645395423
leaf_weight=5.4290844500064841 4.9355313181877118 5.429084450006485 7.4032969772815731 9.6242860704660398 6.1694141477346411 8.8839563727378863
leaf_count=22 20 22 30 39 25 36
internal_value=-1.4031 -1.36366 -1.414 -1.39221 -1.4286 -1.43997
internal_weight=47.8747 10.3646 37.51 15.0534 22.4567 16.2873
internal_count=194 42 152 61 91 66
is_linear=0
shrinkage=1


Tree=3
num_leaves=8
num_cat=0
split_feature=12 14 13 32 18 46 0
split_gain=9.93921 5.92042 6.0394 3.14491 2.99791 0.561523 1.77636e-15
threshold=-1.1072100056043339 1.1943999058516137 0.83939154166992003 -0.97964544584970237 0.62450888054830955 -0.45761437085307816 0.31141333067832039
decision_type=2 2 2 2 2 2 2
left_child=-1 2 3 -2 5 -5 -7
right_child=1 -3 -4 4 -6 6 -8
leaf_value=-1.3049932225204501 -1.355249546398374 -1.3209455853562564 -1.3357317754606175 -1.3906255062230581 -1.3611455397024881 -1.4102788172367715 -1.4102788172367715
leaf_weight=7.1234816312789908 6.3602514564990988 5.5970212817192069 7.3778916895389548 5.088201165199286 5.0882011651992789 7.3778916895389575 5.3426112234592438
leaf_count=28 25 22 29 20 20 29 21
internal_value=-1.35963 -1.36884 -1.37616 -1.38635 -1.39499 -1.40466 -1.41028
internal_weight=49.3556 42.2321 36.635 29.2572 22.8969 17.8087 12.7205
internal_count=194 166 144 115 90 70 50
is_linear=0
shrinkage=1


end of trees

feature_importances:
Column_10=3
Column_0=2
Column_1=2
Column_8=2
Column_13=2
Column_37=2
Column_46=2
Column_2=1
Column_7=1
Column_12=1
Column_14=1
Column_16=1
Column_18=1
Column_25=1
Column_32=1
Column_33=1
Column_40=1
Column_49=1

parameters:
[boosting: gbdt]
[objective: multiclass]
[metric: multi_logloss]
[tree_learner: serial]
[device_type: cpu]
[data_sample_strategy: bagging]
[data: ]
[valid: ]
[num_iterations: 300]
[learning_rate: 0.05]
[num_leaves: 31]
[num_threads: 0]
[seed: 42]
[deterministic: 0]
[force_col_wise: 0]
[force_row_wise: 0]
[histogram_pool_size: -1]
[max_depth: -1]
[min_data_in_leaf: 20]
[min_sum_hessian_in_leaf: 0.001]
[bagging_fraction: 0.8]
[pos_bagging_fraction: 1]
[neg_bagging_fraction: 1]
[bagging_freq: 5]
[bagging_seed: 400]
[bagging_by_query: 0]
[feature_fraction: 0.9]
[feature_fraction_bynode: 1]
[feature_fraction_seed: 30056]
[extra_trees: 0]
[extra_seed: 12879]
[early_stopping_round: 0]
[early_stopping_min_delta: 0]
[first_metric_only: 0]
[max_delta_step: 0]
[lambda_l1: 0]
[lambda_l2: 0]
[linear_lambda: 0]
[min_gain_to_split: 0]
[drop_rate: 0.1]
[max_drop: 50]
[skip_drop: 0.5]
[xgboost_dart_mode: 0]
[uniform_drop: 0]
[drop_seed: 17869]
[top_rate: 0.2]
[other_rate: 0.1]
[min_data_per_group: 100]
[max_cat_threshold: 32]
[cat_l2: 10]
[cat_smooth: 10]
[max_cat_to_onehot: 4]
[top_k: 20]
[monotone_constraints: ]
[monotone_constraints_method: basic]
[monotone_penalty: 0]
[feature_contri: ]
[forcedsplits_filename: ]
[refit_decay_rate: 0.9]
[cegb_tradeoff: 1]
[cegb_penalty_split: 0]
[cegb_penalty_feature_lazy: ]
[cegb_penalty_feature_coupled: ]
[path_smooth: 0]
[interaction_constraints: ]
[verbosity: -1]
[saved_feature_importance_type: 0]
[use_quantized_grad: 0]
[num_grad_quant_bins: 4]
[quant_train_renew_leaf: 0]
[stochastic_rounding: 1]
[linear_tree: 0]
[max_bin: 255]
[max_bin_by_feature: ]
[min_data_in_bin: 3]
[bin_construct_sample_cnt: 200000]
[data_random_seed: 175]
[is_enable_sparse: 1]
[enable_bundle: 1]
[use_missing: 1]
[zero_as_missing: 0]
[feature_pre_filter: 1]
[pre_partition: 0]
[two_round: 0]
[header: 0]
[label_column: ]
[weight_column: ]
[group_column: ]
[ignore_column: ]
[categorical_feature: ]
[forcedbins_filename: ]
[precise_float_parser: 0]
[parser_config_file: ]
[objective_seed: 16083]
[num_class: 4]
[is_unbalance: 0]
[scale_pos_weight: 1]
[sigmoid: 1]
[boost_from_average: 1]
[reg_sqrt: 0]
[alpha: 0.9]
[fair_c: 1]
[poisson_max_delta_step: 0.7]
[tweedie_variance_power: 1.5]
[lambdarank_truncation_level: 30]
[lambdarank_norm: 1]
[label_gain: ]
[lambdarank_position_bias_regularization: 0]
[eval_at: ]
[multi_error_top_k: 1]
[auc_mu_weights: ]
[num_machines: 1]
[local_listen_port: 12400]
[time_out: 120]
[machine_list_filename: ]
[machines: ]
[gpu_platform_id: -1]
[gpu_device_id: -1]
[gpu_use_dp: 0]
[num_gpu: 1]

end of parameters

pandas_categorical:null
